%YAML:1.0
---
myHogDector: !!opencv-object-detector-hog
   winSize: [ 64, 128 ]
   blockSize: [ 16, 16 ]
   blockStride: [ 8, 8 ]
   cellSize: [ 8, 8 ]
   nbins: 9
   derivAperture: 1
   winSigma: 4.
   histogramNormType: 0
   L2HysThreshold: 2.0000000000000001e-01
   gammaCorrection: 1
   nlevels: 64
   signedGradient: 0
   SVMDetector: [ 1.26253888e-02, -2.90454943e-02, -3.03745475e-02,
       2.33231653e-02, 1.74057167e-02, -1.19251637e-02, -6.75348332e-03,
       -1.72579903e-02, 1.94203388e-02, 1.41040720e-02, -2.58676019e-02,
       2.87622190e-03, 7.07280496e-03, 1.26099195e-02, 2.30859388e-02,
       -1.64083075e-02, 8.42187647e-03, 9.84846894e-03, 2.12734789e-02,
       -6.51788199e-03, -1.90860406e-02, 3.22529972e-02, -4.12815571e-04,
       4.00809105e-03, -2.75443383e-02, -1.84109341e-02, 7.83524755e-03,
       1.22104967e-02, 1.03697013e-02, -3.24879005e-03, 2.27658302e-02,
       -2.21105013e-02, 4.11624238e-02, 1.16335405e-02, 2.13345196e-02,
       -1.66625846e-02, -1.13142598e-02, -1.70875639e-02, 2.18905639e-02,
       8.41621868e-03, 8.26509669e-03, 1.80061050e-02, -2.05654278e-02,
       7.57434079e-03, 2.18345374e-02, 5.56535227e-03, 2.85138423e-03,
       1.04881013e-02, 1.28506757e-02, -1.19980844e-03, 1.30987000e-02,
       -1.05578918e-02, 3.11769117e-02, 1.20964944e-02, 1.26346911e-03,
       1.03501724e-02, 9.36751161e-03, 1.18714254e-02, -1.44142555e-02,
       1.61724873e-02, -1.10144587e-02, 2.27493071e-03, -3.17973383e-02,
       2.71479823e-02, 2.37998944e-02, -1.62030216e-02, 2.30073035e-02,
       -8.53176694e-03, -4.42180876e-03, -1.74186286e-02,
       -1.30333065e-03, 6.47496898e-03, -9.00406204e-03, 1.94534101e-02,
       2.05105972e-02, -1.88690575e-03, -2.50442158e-02, 1.80030782e-02,
       1.15203802e-02, 2.05078367e-02, -1.36025855e-02, 6.98364852e-03,
       2.06587110e-02, 9.74419713e-03, -1.09929619e-02, -3.48676997e-03,
       3.14583071e-02, 2.35267319e-02, 1.62140578e-02, 2.33086701e-02,
       8.28015711e-03, 2.76381872e-03, -2.66317721e-03, 1.20906802e-02,
       -5.12343347e-02, -2.09820587e-02, 1.09437630e-02, -3.03031621e-03,
       9.11158137e-03, 1.38508165e-02, 1.25973057e-02, -7.93778338e-03,
       -1.50360567e-02, -4.05977182e-02, 1.85480341e-02, 2.01820303e-03,
       8.83543771e-03, 1.66074075e-02, 9.54135507e-03, 1.90996192e-02,
       -4.13212553e-03, -4.05252203e-02, -6.71924278e-03, 4.50892607e-03,
       3.35841905e-03, -1.88876055e-02, -2.77246442e-03, -2.61765923e-02,
       5.36659313e-03, -2.55393144e-02, -2.79643461e-02, -2.11024825e-02,
       1.71153191e-02, -3.00975423e-03, -1.82475466e-02, -4.79789637e-03,
       9.50620975e-03, 6.59814570e-03, 4.84387111e-03, 8.14666227e-03,
       -2.18752343e-02, -2.67715380e-03, -1.96068734e-02, 1.21160783e-02,
       -8.96543916e-03, -2.11607851e-02, -7.29615742e-04,
       -3.29584093e-03, 1.18915818e-03, -1.23143047e-02, -1.33591220e-02,
       -1.14540542e-02, 1.34285344e-02, -3.67452251e-03, -2.23003738e-02,
       2.46806219e-02, -2.17708834e-02, -1.09652830e-02, 1.97708309e-02,
       -1.93151191e-03, -2.94617307e-03, 2.80928258e-02, 3.92978266e-03,
       -2.08118297e-02, -2.77188830e-02, -4.77393940e-02,
       -2.48777457e-02, 1.89491489e-03, -4.74575944e-02, -4.96744644e-03,
       3.04271244e-02, -2.05807295e-03, 8.54898989e-03, 3.76979150e-02,
       3.57595203e-03, 7.38644181e-03, -1.52782211e-03, 1.41248386e-02,
       2.21020877e-02, 3.37342843e-02, -4.89914019e-05, -1.99848730e-02,
       -8.20407737e-03, -2.10580342e-02, -1.36289210e-03, 4.49477369e-03,
       3.70321679e-03, 1.33092673e-02, 8.93804338e-03, -1.11076348e-02,
       -2.24659573e-02, -2.15661284e-02, -2.94509158e-02,
       -6.00813003e-03, -2.18634959e-03, -3.27696800e-02, 2.28455057e-03,
       3.26361172e-02, -5.30129205e-03, -7.86986668e-04, -2.01500114e-02,
       -2.62359679e-02, -1.96425188e-02, -8.86720233e-03,
       -4.51439321e-02, -5.62877534e-03, 3.37114348e-03, -1.76801148e-03,
       5.44950273e-03, 5.91326877e-03, -1.00825662e-02, 2.98118405e-02,
       1.37809142e-02, 2.55458616e-02, -6.67638099e-03, 1.82378348e-02,
       -2.87520178e-02, -5.12483530e-03, 4.02660333e-02, -6.57791039e-03,
       5.89635274e-05, -1.02516785e-02, -1.48066869e-02, -3.43900989e-04,
       -3.28142801e-03, -1.05184363e-02, 1.30046504e-02, 2.87681725e-03,
       -2.90210713e-02, 8.83679604e-04, -1.41838770e-02, -4.45769541e-02,
       -1.35261957e-02, 7.37883430e-03, 4.29037735e-02, -2.74870154e-02,
       -3.28704230e-02, -4.03999127e-02, -1.24980425e-02,
       -8.47633928e-03, -2.41640713e-02, -2.99319495e-02, 5.81936864e-03,
       -1.43168736e-02, 1.54539924e-02, 1.48713319e-02, 4.75869048e-03,
       5.07961996e-02, 8.95960815e-03, 3.04226903e-03, -2.16561649e-03,
       1.37280645e-02, 1.42273372e-02, -3.39254923e-02, -3.17663178e-02,
       -2.70122774e-02, -2.12290417e-02, 5.75044053e-03, -5.76018915e-03,
       -3.35332640e-02, -1.39626935e-02, -8.63072090e-03,
       -5.72868343e-03, -1.61745939e-02, -8.35793652e-03, 1.76195335e-02,
       8.89645162e-05, 1.36175556e-02, -1.37523124e-02, 1.90829933e-02,
       -1.87180210e-02, -5.09227626e-03, -1.24501279e-02,
       -4.08110488e-03, -2.72722449e-02, -2.65105180e-02,
       -8.67100246e-03, -3.87625694e-02, 1.89655423e-02, -2.20625941e-02,
       1.47269741e-02, 1.98466741e-02, -6.29401300e-03, 1.53955631e-02,
       5.75312180e-03, 1.34396255e-02, -9.51093715e-03, 2.05669235e-02,
       2.93844868e-03, -8.05041380e-03, 8.09935294e-03, -1.85615961e-02,
       -6.97353110e-03, 2.72926874e-03, -4.61649057e-03, -1.31510887e-02,
       1.81154571e-02, -1.09311054e-03, 3.05513851e-04, -1.37803506e-03,
       1.27154775e-02, 1.07430862e-02, -2.58025294e-03, -3.43277631e-03,
       -4.29365858e-02, 1.85153875e-02, 2.26148609e-02, -6.58833748e-03,
       5.35347732e-04, -2.48693004e-02, 1.74496789e-02, -3.34505178e-03,
       -7.82656856e-03, -4.00244258e-02, -6.41716970e-03,
       -2.40644030e-02, 9.03689535e-04, -4.14516730e-03, 3.01369978e-03,
       -2.53662318e-02, -2.11987775e-02, 1.53789455e-02, -1.64621659e-02,
       3.92759591e-02, 1.53540326e-02, -3.20116431e-02, 6.56579668e-03,
       -5.65486588e-03, -1.20041445e-02, -1.78965423e-02,
       -5.99699561e-04, -6.71277801e-03, 2.28178222e-02, -4.63938825e-02,
       2.17121467e-03, -7.87183084e-03, -1.36691639e-02, 1.33377118e-02,
       -1.83471668e-04, 3.93580599e-03, -6.51740190e-03, -6.36492716e-03,
       3.33173461e-02, 6.08626800e-03, -1.37068303e-02, -4.71997820e-02,
       -5.07442653e-03, 1.66389607e-02, -7.29863299e-03, -9.50333755e-03,
       -1.17392642e-02, 8.60307273e-03, -9.33299493e-03, 9.86826979e-03,
       1.09927487e-02, 2.74520144e-02, 1.91125106e-02, 1.44807389e-02,
       1.10574560e-02, 2.80844755e-02, -3.39268520e-02, -1.81462456e-04,
       1.92262083e-02, -2.00726129e-02, 1.80117153e-02, -1.34472372e-02,
       -1.46979932e-02, -1.14777843e-02, -5.45118144e-03,
       -1.75928287e-02, 1.24506680e-02, -9.32169240e-03, -4.96282503e-02,
       2.16408316e-02, 2.65131127e-02, -2.76316190e-03, -1.81004386e-02,
       -5.79869468e-03, 1.06635932e-02, -1.13215148e-02, -3.47733274e-02,
       -1.98565964e-02, 1.07880468e-02, -1.84669141e-02, -1.22306747e-02,
       -3.72630060e-02, 1.94591226e-03, 4.49690782e-03, 2.84405705e-02,
       2.10254937e-02, -4.83814720e-03, 3.17955986e-02, 2.77357474e-02,
       8.63222592e-03, 2.45261617e-04, 9.78653319e-03, -1.98863931e-02,
       1.40312668e-02, 3.15444847e-03, 1.32519444e-02, 3.26800235e-02,
       -6.57896418e-03, -4.55945701e-04, -9.09459870e-03, 5.75565267e-03,
       -2.28504930e-03, -2.92030182e-02, -3.68963322e-03, 9.38621641e-04,
       -6.50947634e-03, -1.47925420e-02, -1.51249953e-02,
       -2.48808600e-02, 5.10065490e-03, 3.15417536e-04, -2.95699742e-02,
       5.61259408e-03, -3.95630039e-02, -1.73763521e-02, -3.37679964e-03,
       -5.11030143e-04, -4.14643399e-02, -1.63639244e-02,
       -1.60139352e-02, 2.32545640e-02, 1.97030720e-03, -7.64551898e-03,
       3.01264529e-03, 9.22948867e-03, 1.75248254e-02, -4.85629868e-03,
       3.90355266e-03, 1.64182112e-02, -1.06065981e-02, 1.86805222e-02,
       -8.79082549e-03, 4.51313984e-03, 2.62216721e-02, 3.45224738e-02,
       -9.63798352e-03, -2.75134537e-02, -7.73641421e-03,
       -6.98328367e-04, 1.22578419e-03, -3.01829050e-03, 2.05216948e-02,
       1.52741959e-02, -1.53269628e-02, -1.94711760e-02, -1.76123139e-02,
       1.27343331e-02, -7.79242394e-03, -1.68286748e-02, -4.40772204e-03,
       -6.01532171e-03, 1.57676209e-02, -4.66280952e-02, -6.70570834e-03,
       1.45977829e-02, 6.68464601e-03, 7.99788535e-03, 2.27119513e-02,
       2.53408346e-02, 3.21978852e-02, 1.72582641e-02, 1.93033684e-02,
       1.70850866e-02, 1.24339573e-02, 1.94023724e-03, 1.34222507e-02,
       -2.26633344e-03, 1.16485329e-02, 1.02647515e-02, 1.67472090e-03,
       8.79363142e-05, 1.97699517e-02, 2.48447396e-02, 1.03897946e-02,
       -1.15171019e-02, 9.02399514e-03, 1.71390269e-02, 2.17255987e-02,
       -2.70302349e-04, -1.43604511e-02, -2.53103692e-02, 3.63085903e-02,
       1.15143433e-02, 2.96525704e-03, -2.25977749e-02, -2.38623414e-02,
       -2.33587585e-02, 1.56667400e-02, 2.20747422e-02, -4.26337197e-02,
       -1.10918796e-02, 1.00242095e-02, 1.74934343e-02, 6.94754068e-03,
       7.79194804e-03, 8.77822563e-03, 4.98326216e-03, 2.77623385e-02,
       1.04202768e-02, 1.36133125e-02, 1.19249662e-02, -1.96397468e-03,
       -6.37350185e-03, 8.08172952e-03, 5.00217732e-03, 1.12361936e-02,
       1.95488278e-02, -3.03525366e-02, -2.16790773e-02, 2.23760065e-02,
       2.61475183e-02, -1.60314068e-02, -2.37806514e-02, -1.16307777e-03,
       1.12174088e-02, 4.39067334e-02, -2.57830806e-02, -5.02057467e-03,
       2.16641780e-02, 3.71966138e-02, -2.08827239e-02, -1.00677069e-02,
       1.92973260e-02, -2.02702358e-02, 4.77405638e-03, -1.56319905e-02,
       1.20381406e-03, 1.73718333e-02, -4.44620661e-03, -1.12494510e-02,
       1.70407146e-02, 3.01382989e-02, 1.12537397e-02, 3.84673998e-02,
       -3.42276543e-02, -7.16940546e-03, 1.40406759e-02, 1.82146318e-02,
       -2.48617083e-02, 3.53670120e-03, 6.53511845e-04, -2.17433386e-02,
       1.46856094e-02, 8.48659407e-03, -5.08359168e-03, 6.13223901e-03,
       3.00207399e-02, -1.61559158e-03, -7.87682459e-03, 1.52853485e-02,
       4.10749987e-02, 8.29193182e-03, -2.68789995e-02, -1.60310194e-02,
       1.89334173e-02, 3.47376764e-02, 8.31529312e-03, 4.27278969e-03,
       -5.26917074e-03, 1.49626611e-02, 2.77853869e-02, 1.78231448e-02,
       1.33656356e-02, 1.67948175e-02, -2.18951553e-02, -1.75373238e-02,
       -1.80107949e-03, 1.82666965e-02, -1.56729750e-03, -1.50573701e-02,
       -2.94144955e-02, -1.18847401e-03, 4.05827202e-02, 2.98136729e-03,
       -2.37446465e-02, -2.44574680e-04, -1.54114224e-03,
       -6.60187332e-03, 1.53892199e-02, 1.10374084e-02, 1.94581924e-03,
       1.94366034e-02, 8.06158409e-03, -8.64065345e-03, -2.68878555e-03,
       -2.26683747e-02, 1.54094687e-02, 6.91615883e-03, 3.36454890e-04,
       1.16793457e-02, 6.71887910e-03, 1.23668928e-02, -1.11077931e-02,
       -2.44248137e-02, -1.32543184e-02, 1.65560581e-02, -5.69864921e-03,
       -1.30790798e-02, -1.32967941e-02, 1.52533166e-02, 3.77197075e-03,
       -1.68669671e-02, 7.91321602e-03, -2.22956371e-02, 1.08441217e-02,
       9.19825956e-03, 1.49335247e-02, -1.02937175e-02, 6.68035820e-03,
       7.27903284e-03, -1.72659177e-02, 2.28320295e-03, -5.43159805e-03,
       -1.68333109e-02, 1.05618360e-02, 1.42730363e-02, -8.01522471e-03,
       1.39400465e-02, -1.93639903e-03, -2.06935741e-02, -5.04970737e-03,
       2.51968601e-03, 3.06691006e-02, -4.77156742e-03, -5.09956712e-03,
       -1.77265666e-02, 1.05661163e-02, 1.30464127e-02, 4.59043356e-03,
       -3.57370445e-04, -1.09950565e-02, 1.93155129e-02, 1.18684275e-02,
       1.84312314e-02, 2.63528470e-02, 1.06668072e-02, -4.71748039e-03,
       -3.02360933e-02, 6.56159176e-03, 9.91001911e-03, 2.76649855e-02,
       2.22151503e-02, -6.88897585e-03, -1.48667023e-02, 2.66264305e-02,
       -1.06162997e-02, -2.31110752e-02, -1.67840021e-03,
       -4.07566549e-03, -1.38498284e-02, 1.75517611e-02, 3.18991058e-02,
       2.21927259e-02, -1.04169343e-02, -2.83833477e-03, 6.10230381e-05,
       2.14738728e-04, -3.00795101e-02, 8.35917890e-03, -1.41222794e-02,
       3.04400409e-03, 7.59536354e-03, -1.72498468e-02, 1.75830687e-03,
       2.56899875e-02, -3.03298701e-02, -3.70291397e-02, 5.57125062e-02,
       5.10513084e-03, 1.25775882e-03, -7.47435447e-03, -9.56372544e-03,
       -1.86977498e-02, 3.87906022e-02, 3.42403837e-02, 5.06580714e-03,
       -3.12486924e-02, -1.98068731e-02, 3.08004264e-02, 3.10532842e-02,
       -2.02750377e-02, -4.73265396e-03, 4.51472066e-02, -1.70176122e-02,
       -3.79522331e-02, 5.38623426e-03, -2.38061137e-02, 6.61726110e-03,
       -1.52883008e-02, -1.54801263e-02, 3.97684537e-02, 5.89841977e-02,
       -1.06219342e-02, -3.53315361e-02, 1.88820176e-02, -5.78965200e-03,
       3.76780936e-03, -1.86356921e-02, 4.46155015e-03, 4.98952297e-03,
       3.78973642e-03, -3.18220295e-02, -3.43488902e-02, 2.93349270e-02,
       -1.31558757e-02, -7.91474525e-03, -1.30792102e-02, 8.94939760e-04,
       4.18574363e-02, 7.75991455e-02, -2.48351917e-02, -3.22827622e-02,
       1.82843190e-02, 2.89860065e-03, 1.01126535e-02, 9.01231356e-03,
       8.57494771e-03, 1.86665934e-02, 1.21731320e-02, -4.36051749e-02,
       7.94986991e-05, 4.02343050e-02, -2.35577803e-02, -1.97978131e-02,
       -1.17743108e-02, 5.07132150e-03, -3.97533004e-04, 1.30817136e-02,
       -1.67074986e-02, 1.63928943e-03, 3.57551202e-02, 8.43952876e-03,
       -2.60153762e-03, 1.27064642e-02, 1.94227584e-02, -1.12900306e-02,
       1.58817414e-02, -1.29679851e-02, 2.07218193e-02, 3.02218888e-02,
       3.94906709e-03, -1.58469882e-02, 3.96758551e-03, 9.69294459e-03,
       2.32623834e-02, 1.81086734e-02, -9.27805901e-03, 5.92239713e-03,
       1.24314008e-02, -6.99533103e-03, 4.36455710e-03, 1.89697109e-02,
       9.16822441e-03, -6.77203527e-03, 1.92405358e-02, -3.80160729e-03,
       -3.82566522e-03, 2.94127055e-02, -5.93497790e-03, -1.47465605e-03,
       3.26176477e-03, -1.86835881e-02, 4.03252011e-03, 9.25451517e-03,
       -2.18652887e-04, 1.52080404e-02, 2.75014453e-02, 8.20881408e-03,
       -7.46996608e-03, 1.22465678e-02, 1.99410096e-02, 8.09468329e-03,
       -1.36772888e-02, -6.68428373e-03, -2.89712586e-02, 4.22496200e-02,
       -1.40673174e-02, -1.54568311e-02, 1.48242293e-02, 2.07680091e-03,
       -2.00475683e-03, 5.60057461e-02, -7.46375276e-03, -2.51361518e-03,
       3.60034443e-02, 3.73070105e-03, 9.44695622e-03, 3.68595752e-03,
       4.43820888e-03, 2.61533093e-02, 1.76681858e-02, -2.30486840e-02,
       -2.02484336e-02, 3.16655971e-02, -1.82489119e-02, 1.55805806e-02,
       -2.72350106e-03, -1.86562948e-02, 9.24071483e-03, 1.18035944e-02,
       3.29475012e-03, -1.32968440e-03, 3.06647806e-03, -2.38934476e-02,
       -1.89126767e-02, 1.83564667e-02, 2.06913967e-02, -5.91708021e-03,
       -1.04299020e-02, -2.78507713e-02, 8.77049845e-03, 1.79115180e-02,
       -1.99159160e-02, -6.49279822e-03, 1.67720821e-02, 9.55254212e-03,
       5.13532721e-02, 5.41020297e-02, 1.30863758e-02, 2.38008555e-02,
       3.04491865e-03, 8.13498441e-03, 7.77037488e-03, 1.83189369e-03,
       -9.52662900e-03, 1.90513190e-02, 3.40933055e-02, -1.05031431e-02,
       2.59115882e-02, 3.66979539e-02, 2.96834484e-02, 6.45179441e-03,
       -1.66492211e-03, 9.12300777e-03, -8.76113214e-03, -8.23773630e-03,
       -4.24883105e-02, -1.06561556e-02, -2.96440651e-03,
       -7.77842384e-03, -1.77356303e-02, 1.25663972e-03, 1.22223161e-02,
       -1.16612772e-02, 6.03066338e-03, -2.81697977e-02, -5.58244251e-03,
       -5.20318560e-03, -3.53206024e-02, -1.88717861e-02,
       -7.53847789e-03, -2.22245045e-02, 2.57001352e-03, 3.07723731e-02,
       -3.17245610e-02, 1.72585491e-02, 5.95449246e-02, 5.20756878e-02,
       2.92074252e-02, 2.37962920e-02, 1.80981737e-02, 1.01702528e-04,
       4.50552907e-03, -1.67172216e-02, 2.92188711e-02, 1.69330854e-02,
       2.77624130e-02, -3.99655633e-04, 1.86130051e-02, 2.27294746e-03,
       -1.15711978e-02, -4.76468308e-03, -3.96695826e-03, 3.45786987e-03,
       8.81673582e-03, -2.51099262e-02, -1.97233818e-02, 3.50783556e-03,
       -1.24543114e-02, 2.99343164e-03, 5.94800571e-03, -2.64703035e-02,
       -1.45214023e-02, -2.08037794e-02, -1.43090133e-02,
       -1.89530179e-02, 1.41715743e-02, -1.56708490e-02, -9.59033612e-04,
       2.71412171e-02, -4.95535042e-03, 1.73884332e-02, 2.49888971e-02,
       2.06611045e-02, -1.79314837e-02, -4.32138750e-03, -2.82145087e-02,
       2.99017620e-03, 1.51450858e-02, -1.93503574e-02, -7.82466214e-03,
       1.26403961e-02, 1.51671767e-02, -3.44542824e-02, -2.47105248e-02,
       -1.61068048e-02, 7.90109299e-03, 1.99096892e-02, -3.04662995e-02,
       -3.64695513e-03, 1.86167229e-02, 2.01832294e-03, -1.75991617e-02,
       6.32626936e-03, -6.97304669e-04, -2.04069167e-02, -1.60064064e-02,
       -3.13920937e-02, 5.14368573e-03, -2.61677522e-02, -2.21067090e-02,
       -5.22667542e-02, -1.65034253e-02, 7.19099352e-03, 3.28560360e-02,
       9.43159871e-03, -4.59809462e-03, 1.14883007e-02, 4.54083644e-02,
       2.03463398e-02, 1.23827485e-02, 2.82524005e-02, 2.35498920e-02,
       1.51924323e-03, 6.20219018e-03, -1.38380295e-02, 2.32382193e-02,
       2.96861064e-02, 1.11020291e-02, -2.58736722e-02, -1.54306479e-02,
       3.16065765e-04, 1.32998647e-02, 3.31139425e-03, -2.11748830e-03,
       -7.98144657e-03, -2.64758002e-02, 2.74663349e-03, -2.98797544e-02,
       -5.75452298e-03, 5.10254968e-03, -8.71587079e-03, 2.50039529e-02,
       9.89173818e-03, -1.81466639e-02, -1.54208450e-04, -1.87642816e-02,
       -2.23748069e-02, -1.28293838e-02, -5.41668870e-02, 2.38044485e-02,
       1.96054094e-02, -2.68931617e-03, 1.11482833e-02, 1.54452231e-02,
       2.81049982e-02, -1.60793886e-02, -4.42097569e-03, -3.05589382e-03,
       5.85297938e-04, 3.02757639e-02, 6.88788772e-04, 1.82947479e-02,
       1.98526047e-02, 8.96876119e-03, 7.70259276e-03, 1.10842688e-02,
       -3.17924060e-02, -2.73366552e-02, -1.17484685e-02, 3.48163256e-03,
       -4.34448989e-03, -2.61268727e-02, -1.91083010e-02,
       -3.84369353e-03, 1.23265646e-02, -2.91312709e-02, -1.47626642e-02,
       -2.33025812e-02, -1.50675075e-02, -8.75101984e-03,
       -5.02850041e-02, -2.53375322e-02, -1.57727823e-02,
       -8.67644884e-03, -1.89351328e-02, -1.08108474e-02, 1.86821222e-02,
       1.67344082e-02, 3.97927389e-02, 5.94097599e-02, 4.98922542e-02,
       1.42154098e-02, 1.64487306e-02, 7.41382502e-03, -8.43390008e-04,
       2.62600705e-02, 7.77168479e-03, 1.09662013e-02, 1.53681822e-02,
       4.45152074e-02, 2.10850425e-02, 2.63117608e-02, -2.46220678e-02,
       -2.74800672e-03, -1.71650536e-02, -4.47369460e-03,
       -2.59489976e-02, -4.22341898e-02, -3.74731637e-04, 2.70810518e-02,
       -9.10035148e-03, 6.93634572e-03, 1.60612576e-02, -2.07960662e-02,
       -7.52509246e-03, -2.61935852e-02, -1.54312309e-02,
       -3.66274305e-02, -2.86486950e-02, -1.00160083e-02, 3.34469080e-02,
       1.85857471e-02, 1.69012975e-02, 3.58327590e-02, 1.19579546e-02,
       -2.78910552e-03, 6.20603263e-02, 4.92889062e-02, 3.76925804e-02,
       1.02770757e-02, -2.17108708e-02, -4.10125926e-02, 5.16307121e-03,
       -1.77109726e-02, -2.88001518e-03, 4.29541096e-02, -9.18623246e-03,
       -3.57842119e-03, -3.15159210e-03, -2.06015212e-03,
       -2.40150057e-02, 1.09108388e-02, 4.52375505e-03, 9.47878603e-03,
       -2.60433857e-03, 4.20155469e-04, 1.29037220e-02, 1.82110164e-02,
       -1.46421576e-02, -4.19475622e-02, -1.44219082e-02, 2.14617071e-03,
       -1.53303351e-02, -7.40792835e-03, -6.28872449e-03,
       -1.40049786e-03, -9.86753870e-03, 5.61531633e-03, -2.62430832e-02,
       3.42081324e-03, 3.46831838e-03, -1.53170088e-02, 1.59785412e-02,
       6.49396935e-03, 1.44496216e-02, 3.15608867e-02, 3.58556211e-03,
       -3.25097628e-02, 2.66317441e-03, 4.47329395e-02, 1.91630255e-02,
       3.43035045e-03, -7.84665905e-03, -2.48006135e-02, -1.07535478e-02,
       -2.26201788e-02, 3.58351553e-03, 2.38347594e-02, 5.19408174e-02,
       2.98255049e-02, -2.04151403e-02, -2.98309494e-02, -1.24178380e-02,
       2.44798176e-02, 2.74619590e-02, -8.43200774e-04, 4.44787042e-03,
       1.15396166e-02, -1.54755712e-02, 6.94015482e-03, -1.73671748e-02,
       3.57833412e-03, 3.10610440e-02, 1.61835272e-02, -1.09578494e-03,
       9.42237955e-03, 2.04240326e-02, 6.78730058e-03, -2.90160906e-03,
       -2.45780759e-02, -1.17540481e-02, 1.97963156e-02, 1.89067442e-02,
       -4.41798009e-02, -2.73108743e-02, 9.83690936e-03, -3.67615707e-02,
       2.84744352e-02, -1.64203104e-02, -2.44234540e-02, -1.83278680e-04,
       -2.97686402e-02, -3.42562795e-02, 9.09728184e-03, -1.93172134e-02,
       2.42705503e-03, -1.82719380e-02, -2.55136024e-02, -2.10248232e-02,
       -1.64301526e-02, 9.79197212e-03, 3.36461812e-02, 3.75707000e-02,
       1.23315072e-02, 4.64936579e-03, -5.62589010e-03, -6.10497873e-03,
       -1.38659030e-02, 5.34368679e-03, -3.43940817e-02, 5.63277164e-03,
       8.22179914e-02, 5.34988642e-02, 2.43843831e-02, 2.49474682e-02,
       -1.06409276e-02, -5.33902049e-02, -4.20964807e-02, 1.80391651e-02,
       7.30386153e-02, 7.45648593e-02, 5.32763004e-02, -4.57267044e-03,
       3.51141803e-02, 1.41210500e-02, -1.80884320e-02, 1.04797846e-02,
       2.90571339e-02, -1.83328036e-02, -3.84175517e-02, -1.22014498e-02,
       1.29435752e-02, -1.94105953e-02, -5.10049053e-03, 1.01344837e-02,
       3.91458906e-02, -3.67655978e-02, -4.13485691e-02, -1.62330288e-02,
       -2.33932375e-03, 2.90172664e-03, -2.49150191e-02, 1.86847486e-02,
       4.98867817e-02, 5.54043108e-05, 6.44960254e-02, 1.83847230e-02,
       -2.55630482e-02, 1.55297127e-02, 1.98123008e-02, 8.86558148e-04,
       7.16010202e-03, 6.44045696e-02, 6.89460933e-02, 1.02572665e-02,
       -4.07981826e-03, 8.08126852e-03, 2.40872800e-02, 2.73534916e-02,
       -2.07470823e-02, 2.97642611e-02, 7.69671723e-02, 4.23856676e-02,
       -2.31492147e-02, 8.24820027e-02, 1.24250434e-01, 8.16889182e-02,
       -1.33766215e-02, -5.67084216e-02, -7.20951846e-03, 2.78428327e-02,
       -3.63459140e-02, 2.85251485e-03, 6.23534732e-02, 2.44486425e-02,
       -5.42337354e-03, -2.21867785e-02, -6.71701282e-02,
       -5.58017194e-02, -2.41190940e-02, -5.62872291e-02,
       -4.87958342e-02, 6.98916912e-02, 1.01066507e-01, 6.09035753e-02,
       7.82817136e-03, -3.01867109e-02, -1.29522430e-02, 4.12549078e-02,
       -1.93847641e-02, -3.75752784e-02, 2.14643497e-02, 1.51053919e-02,
       -1.59932568e-03, 5.80100110e-03, -1.38969896e-02, -2.08297074e-02,
       -1.72897205e-02, -4.74327654e-02, 1.66391190e-02, 8.79307464e-02,
       1.82247460e-02, 1.59187373e-02, -7.79955229e-03, -8.02825391e-03,
       1.44984678e-03, 1.86693855e-02, -2.76881270e-02, -1.04447389e-02,
       1.05825448e-02, -1.02896485e-02, 2.37947516e-03, 8.94021615e-03,
       -1.03513757e-02, 2.35154107e-02, 9.75543913e-03, -1.31090768e-02,
       7.62623595e-03, 2.62860041e-02, -6.06593024e-03, -1.21911662e-02,
       -1.38908345e-02, 3.17224264e-02, 3.38861300e-03, 2.23816279e-03,
       -2.27279384e-02, -3.02246604e-02, 1.50737283e-03, -2.82342192e-02,
       -1.62437614e-02, -1.99504327e-02, -7.85485283e-03, 1.29789067e-02,
       2.52110604e-03, 1.20170237e-02, 1.84092131e-02, 2.54713912e-02,
       -2.29775184e-03, -1.32451588e-02, -2.39089765e-02,
       -1.52868126e-02, 2.26652045e-02, 2.95036267e-02, 1.94171332e-02,
       2.00038427e-03, 6.12835549e-02, 8.59636068e-03, 3.43817781e-04,
       -2.86303610e-02, -2.43143947e-03, 8.94030556e-03, 2.81665046e-02,
       -6.17489358e-03, -3.50918155e-04, 3.55100781e-02, -2.72993855e-02,
       4.31182561e-03, -1.98347177e-02, -2.20782887e-02, -3.58871836e-03,
       -2.47039762e-03, -1.16587859e-02, 2.22322792e-02, 2.45233160e-02,
       -1.15291188e-02, -1.75751727e-02, -3.26071866e-02,
       -3.81799936e-02, -5.70059801e-03, 7.21972808e-03, -2.84564625e-02,
       1.72413967e-03, 9.12816823e-02, 1.56171750e-02, 7.98641797e-03,
       -1.97852422e-02, -6.60888525e-03, 1.58442196e-03, 3.86263616e-02,
       3.48127373e-02, 3.48078795e-02, 4.01236974e-02, -1.75845418e-02,
       -2.68007219e-02, 9.70599300e-04, -2.05668081e-02, 8.22289754e-03,
       8.15669913e-03, 6.91735325e-03, 1.35493814e-03, 6.56713359e-03,
       -3.49686481e-04, -2.30201297e-02, -4.78381068e-02,
       -2.95598581e-02, -1.12724192e-02, 1.31345661e-02, -2.07811557e-02,
       -2.21534725e-03, -2.93969773e-02, -3.01234387e-02,
       -4.10370082e-02, -1.17564276e-02, -1.53850382e-02,
       -2.55408008e-02, 4.00276342e-03, 7.87691562e-04, 6.40359819e-02,
       3.69073153e-02, 1.01601388e-02, 9.13877320e-03, 3.40709952e-03,
       5.35978936e-03, -5.27152279e-03, 1.45836035e-02, 1.07991844e-02,
       1.21310772e-02, 1.06450645e-02, -3.83964879e-03, -1.29113412e-02,
       1.19206840e-02, 1.18753901e-02, -5.08455839e-03, 4.89786528e-02,
       3.10403947e-02, 1.37908403e-02, 1.58523524e-03, -1.60327237e-02,
       1.73309745e-04, -1.04106460e-02, 2.05992684e-02, 4.49649058e-03,
       2.97266915e-02, -1.52088758e-02, 3.79698607e-03, -2.51446981e-02,
       -2.08369941e-02, -2.98944674e-02, 8.42275470e-03, 8.43825005e-03,
       -1.20907407e-02, 1.13491667e-02, -2.03520115e-02, -4.63640783e-03,
       -5.75123064e-04, -2.51730531e-02, -2.69881971e-02, 2.49858433e-03,
       1.47657562e-02, 2.06161919e-03, 6.41207397e-02, 5.39262742e-02,
       1.64179280e-02, -8.37913685e-05, -2.34802887e-02, -1.19041267e-03,
       -1.36968773e-02, 1.48993088e-02, 5.57044661e-03, 4.31273095e-02,
       4.22948599e-02, -2.44738292e-02, 2.40453216e-03, -2.38312166e-02,
       -1.46077536e-02, -3.13788950e-02, -6.30697096e-03,
       -8.00365489e-03, 3.01960502e-02, 1.93449520e-02, 2.35434361e-02,
       -2.21524923e-03, -3.40347067e-02, 2.71185883e-03, -1.53182559e-02,
       -6.58052834e-03, -4.66913357e-02, 6.84722094e-03, -3.57913109e-03,
       9.94570926e-03, 2.18754783e-02, -5.11683896e-03, -9.89940576e-03,
       -2.14935951e-02, -3.49952583e-03, -1.97549909e-02, 1.90938618e-02,
       4.55479100e-02, 8.09774455e-03, 1.10709174e-02, -1.19764153e-02,
       -4.68044952e-02, 9.56052332e-04, -1.90185774e-02, -4.08672243e-02,
       -1.31903654e-02, 1.40730003e-02, 2.67719030e-02, 3.25398967e-02,
       -3.55321867e-03, -6.63718814e-03, -3.61320823e-02,
       -4.28750971e-03, -2.43296232e-02, 1.89684033e-02, 2.84153526e-03,
       3.27088796e-02, 2.74642743e-02, 4.73372964e-03, -4.51400466e-02,
       -3.53193507e-02, -1.48662087e-02, -2.44039185e-02, 1.74751543e-02,
       1.68940816e-02, -2.60162894e-02, 2.46429164e-02, -1.56970453e-02,
       -2.65261848e-02, 9.95717011e-03, 1.17327357e-02, -2.63538286e-02,
       9.23339184e-03, -8.95109680e-03, -9.09233838e-03, 2.13465616e-02,
       -3.07482090e-02, -1.66976023e-02, -9.75451525e-03,
       -1.67152844e-02, -1.66945010e-02, 1.21337119e-02, -1.82100777e-02,
       -1.41001483e-02, 5.01601510e-02, 3.68835358e-03, -1.74685828e-02,
       -2.22581322e-03, 8.42410233e-03, -7.42756668e-03, 2.22551040e-02,
       -8.17721989e-03, 5.98287489e-03, 3.16351652e-02, -1.17147816e-02,
       -2.04736646e-02, -2.66411225e-03, 2.54142983e-03, 3.45307821e-03,
       6.07379712e-03, 7.93955009e-03, -2.47250143e-02, -9.13616363e-03,
       -1.91258341e-02, -2.06323843e-02, -3.72261591e-02,
       -4.31928337e-02, -4.56538200e-02, 7.86243659e-03, 3.27585917e-03,
       -2.83847172e-02, 8.65381211e-03, -3.67761627e-02, -2.34669801e-02,
       -3.55411805e-02, -3.44649963e-02, -1.30938999e-02, 5.62981609e-03,
       -3.16945277e-03, 5.11535117e-03, 1.07028913e-02, -1.93779711e-02,
       -2.81402804e-02, -2.33656745e-02, -3.36264260e-02,
       -2.20226161e-02, 3.89626659e-02, 5.71771385e-03, 1.31334253e-02,
       2.55129430e-02, -5.12774661e-03, -5.20200562e-03, -4.06157738e-03,
       1.70609786e-03, 2.11102217e-02, 4.86377850e-02, 1.70456711e-02,
       -1.44883720e-02, 5.05214147e-02, -1.89797357e-02, -2.82164942e-02,
       -3.19769681e-02, -2.02596765e-02, 4.25733655e-04, -2.69922800e-03,
       2.45210231e-05, -2.11881492e-02, 9.17418394e-03, -1.22002251e-02,
       -3.85651216e-02, -1.79777108e-02, -4.20985371e-02,
       -1.98309701e-02, -1.75551269e-02, -3.08397952e-02, 1.13894204e-02,
       6.02301024e-02, 3.52567509e-02, 2.04190686e-02, 4.17364575e-03,
       2.15410031e-02, 2.86727101e-02, 1.00809578e-02, 4.80145076e-03,
       1.67737491e-02, 3.40691060e-02, 2.70197149e-02, 9.74417757e-03,
       6.58881897e-03, 3.14543466e-03, -2.77586039e-02, 1.80560015e-02,
       7.70417694e-03, -4.34639538e-03, -8.88726767e-03, 1.13182915e-02,
       1.29007604e-02, 2.58283280e-02, 4.89382371e-02, 2.84927338e-02,
       1.52669139e-02, 1.79019254e-02, -3.98808345e-02, -5.18202819e-02,
       -2.35581025e-02, -6.29626438e-02, -2.05638446e-02, 5.50127868e-03,
       -3.13007869e-02, -3.33521180e-02, -2.83263922e-02, 4.96444888e-02,
       7.22747147e-02, 2.82060709e-02, 4.17781696e-02, 7.91375041e-02,
       9.40646082e-02, 3.00898924e-02, 5.66150509e-02, 5.45865223e-02,
       -2.05500238e-02, -3.24925296e-02, -1.78773627e-02,
       -2.63318513e-02, 4.49886248e-02, 1.00727277e-02, -2.02279240e-02,
       -2.84660123e-02, -1.97916366e-02, -5.27930446e-03,
       -9.81784239e-03, 2.43456382e-03, 6.56360714e-03, -9.09972936e-03,
       1.15195941e-02, -5.30694844e-03, 3.87024367e-03, 4.94095590e-03,
       -2.88019888e-02, -4.50613759e-02, 8.21145438e-03, 3.64311635e-02,
       4.78688907e-03, 1.03994797e-03, -9.76495259e-03, -2.19219998e-02,
       -1.32882809e-02, 1.84246656e-02, -3.24656768e-03, 1.40258046e-02,
       1.89594850e-02, -2.05621310e-02, 8.53598118e-03, 1.58265773e-02,
       4.31941682e-03, 3.05417068e-02, 1.59077961e-02, -4.17802669e-02,
       -8.41003936e-03, 3.18043716e-02, 7.19989417e-03, 2.80170105e-02,
       1.04680136e-02, -2.31507467e-03, 1.41081046e-02, 4.64656092e-02,
       -3.48885991e-02, -4.34045009e-02, -2.56587267e-02, 1.91295426e-02,
       2.84687150e-03, -3.84102315e-02, -1.58688538e-02, 4.39388417e-02,
       3.59307714e-02, -4.53630947e-02, -3.24783772e-02, 1.15926098e-03,
       1.00876270e-02, 2.92940754e-02, -1.40321227e-02, -2.20566299e-02,
       3.80370729e-02, 3.49541418e-02, -1.56578440e-02, -3.58067490e-02,
       -1.47442156e-02, 1.76436603e-02, 3.47831496e-03, -1.32173151e-02,
       -1.90952700e-02, 4.97612543e-02, 3.10432278e-02, 4.85803559e-03,
       1.14470860e-02, 3.19112949e-02, 6.54929783e-03, 1.63570251e-02,
       -9.34134610e-03, -9.30409972e-03, 3.43957767e-02, -3.72664556e-02,
       -1.60538852e-02, 5.99616654e-02, 4.24855277e-02, 2.16116440e-02,
       3.44867073e-02, 3.01150270e-02, -2.31163315e-02, -3.00943889e-02,
       -3.89956497e-02, 4.46094312e-02, 7.20636398e-02, 4.94278073e-02,
       -3.25857960e-02, 3.49202417e-02, 2.79266350e-02, -2.70236022e-04,
       -6.28759190e-02, -1.53048206e-02, 2.24548602e-03, 2.40353793e-02,
       4.33350541e-02, 3.20605226e-02, 5.86736128e-02, 8.23104009e-02,
       -1.09326029e-02, -3.18259522e-02, -4.09482643e-02,
       -1.74922589e-02, 1.01568922e-02, 1.67320315e-02, -1.20525369e-02,
       3.64120454e-02, 6.35038912e-02, 5.73076457e-02, -2.81925052e-02,
       3.57053988e-02, 3.22827213e-02, 2.63111782e-03, 3.32325920e-02,
       -9.35634132e-03, 9.67270229e-04, 1.02043161e-02, 6.85403645e-02,
       2.69233733e-02, 2.56967694e-02, 7.16473721e-03, 7.07040587e-03,
       8.18234403e-03, 8.63752048e-03, -2.28041373e-02, 1.59086511e-02,
       4.84929867e-02, 1.03262374e-02, 3.90171148e-02, 4.60416563e-02,
       -6.36006473e-03, -3.32676718e-05, -3.02229892e-03, 4.74936143e-03,
       -4.00888175e-03, 4.61787581e-02, 1.45785781e-02, 1.89483464e-02,
       4.86308187e-02, 3.65702361e-02, -1.91725735e-02, -1.20105473e-02,
       -1.22486649e-03, 2.19616704e-02, 1.06826806e-02, -3.45634203e-03,
       -3.47616114e-02, 2.23368555e-02, 6.29143864e-02, 4.81371470e-02,
       2.28374507e-02, 2.54679490e-02, 4.85892855e-02, 4.50474992e-02,
       -2.26105843e-02, -4.54572700e-02, -2.48188805e-03,
       -1.31717371e-02, -9.94558074e-03, 1.73709821e-02, -4.80256276e-04,
       1.37075549e-02, -1.75275207e-02, -3.98291200e-02, -3.78783140e-03,
       3.52639593e-02, 4.62843925e-02, 3.12160496e-02, 1.36584444e-02,
       5.32364435e-02, 6.73826486e-02, 3.53555828e-02, -2.55491510e-02,
       -8.29663035e-03, -1.50135672e-02, 2.78388858e-02, 3.39204632e-03,
       2.77656298e-02, -1.78454481e-02, -1.12375757e-02, -2.90258396e-02,
       -3.68247628e-02, -7.82397017e-03, 3.22062150e-02, -2.74957926e-03,
       -3.27768293e-03, -3.32169756e-02, 3.31283249e-02, 3.28791216e-02,
       2.13917028e-02, -2.58257948e-02, -2.16545090e-02, -8.36297590e-03,
       -2.17670631e-02, -3.21544409e-02, -4.44463491e-02,
       -3.77246216e-02, 6.51003269e-04, 8.78123939e-03, -2.42732167e-02,
       -1.40695637e-02, 2.16877684e-02, 3.02982014e-02, -3.43003054e-03,
       -4.14473042e-02, 2.04590280e-02, -1.21730957e-02, 2.61435937e-02,
       -2.58219764e-02, -6.51624985e-03, 3.79139138e-03, -2.89437501e-03,
       -3.05521823e-02, -2.50813663e-02, -4.22867090e-02,
       -1.03420475e-02, 1.30300596e-02, -1.88867729e-02, -9.56947915e-03,
       8.37331824e-03, -1.43065164e-03, 1.70489419e-02, 1.22176996e-03,
       -7.45591242e-03, -1.21490108e-02, 1.44745903e-02, -1.26750171e-02,
       -2.83056125e-02, 3.45960520e-02, 5.17919706e-03, -2.28795465e-02,
       -9.84984078e-03, 1.05093755e-02, 3.19313034e-02, 1.54144317e-02,
       -4.97830734e-02, -3.86515958e-03, 1.59774851e-02, -7.59572163e-03,
       -6.64393138e-03, -1.90925766e-02, 2.87523982e-03, 7.51126977e-03,
       4.76616481e-03, -1.20108072e-02, -4.71981652e-02, 3.78546491e-03,
       -1.17303059e-03, -4.18451987e-02, -2.83355266e-02,
       -1.93732689e-04, 2.11590924e-03, -9.32005700e-03, -3.21709961e-02,
       -2.18050629e-02, 1.75901167e-02, 1.11801261e-02, 2.98482762e-03,
       -1.02405678e-02, 1.89701058e-02, 9.68178827e-03, -4.96431114e-03,
       -3.31705958e-02, -1.19432416e-02, -2.83401483e-03, 9.34777502e-03,
       4.35432559e-03, 1.80015119e-03, 2.83951312e-02, 9.80533753e-03,
       -6.23933366e-03, -8.15661624e-03, -2.51252353e-02,
       -3.68903787e-03, 6.25181710e-03, -1.13248872e-02, -2.39192531e-03,
       -9.16600460e-04, -9.29198321e-03, -2.84037041e-03,
       -3.95172909e-02, -2.04898641e-02, 5.25391242e-03, 1.19956080e-02,
       1.32012265e-02, 1.78409349e-02, -4.11877222e-03, -1.94493048e-02,
       -1.88454296e-02, -3.53278294e-02, -1.42945703e-02,
       -8.50303657e-03, -7.65164848e-04, 1.72160342e-02, 4.66890819e-03,
       5.05489185e-02, 1.82611663e-02, 2.01306082e-02, -1.13108307e-02,
       -1.86757203e-02, -1.27894497e-02, -2.80540611e-04, 3.52036506e-02,
       1.92128532e-02, 4.49504890e-03, 1.14396187e-02, 1.62104890e-02,
       -4.78345305e-02, -2.78951731e-02, 1.75009351e-02, 1.60567816e-02,
       3.04837339e-02, 1.47295725e-02, 1.21375965e-02, 1.82465687e-02,
       1.59836076e-02, -2.39196587e-02, -4.06907573e-02, 9.24488064e-03,
       1.43855736e-02, 2.34814789e-02, 3.40386145e-02, -1.26217054e-02,
       1.37068862e-02, 6.16921484e-03, -1.02546075e-02, -4.06538136e-02,
       1.18681015e-02, -3.72898951e-03, 2.47577541e-02, -1.30870854e-02,
       -1.52320489e-02, -1.85059989e-03, 3.52080315e-02, -1.33093512e-02,
       2.18627192e-02, 5.90308830e-02, -4.55680117e-03, 2.27239188e-02,
       9.99503769e-03, -3.72357965e-02, -3.06522865e-02, 2.14962643e-02,
       -9.28767119e-03, -8.78680684e-03, 2.46516876e-02, -9.47012100e-03,
       2.20353007e-02, 1.65799900e-03, -2.74838321e-02, 1.82805248e-02,
       1.69768296e-02, -2.73819752e-02, -9.22238361e-03, 1.72810741e-02,
       -3.46778780e-02, -3.20166759e-02, 3.14543513e-03, -2.71463227e-02,
       -8.12466163e-03, 3.48620825e-02, 1.46264965e-02, 1.24456240e-02,
       5.95325306e-02, 1.07666384e-03, 1.09122107e-02, 1.11707598e-02,
       -7.88831059e-03, -2.81386077e-02, 1.81558114e-02, 2.36867392e-03,
       1.09533509e-02, 5.82734756e-02, 2.90336385e-02, -2.43778918e-02,
       -3.27921174e-02, -1.33443410e-02, 5.73038182e-04, 3.72057185e-02,
       3.38894352e-02, 5.93061093e-03, 1.76478997e-02, -1.79516394e-02,
       -6.31466042e-03, 2.71810126e-02, -1.86479837e-02, -1.76255684e-02,
       1.88802350e-02, -6.42167637e-03, -2.16509905e-02, 5.14297113e-02,
       5.32760564e-03, -1.81827191e-02, -1.47383788e-03, -4.59309071e-02,
       1.77544039e-02, 4.57995981e-02, -1.35767804e-02, -1.32742329e-02,
       2.69566420e-02, 2.33138446e-03, -2.59616785e-02, -8.80217087e-03,
       1.64440530e-03, -7.02105323e-03, 3.12042013e-02, 4.03490849e-03,
       3.82940145e-03, 8.12499225e-03, -4.81927916e-02, -2.62360983e-02,
       -1.55847585e-02, -5.36196772e-03, -1.60357095e-02, 2.46238317e-02,
       4.30682953e-03, -1.75734106e-02, 3.36149633e-02, -2.28337036e-03,
       -1.56262219e-02, 5.75514231e-03, -3.22426632e-02, -2.28545349e-02,
       5.73813543e-02, -3.07940468e-02, -2.94900220e-03, 5.56247262e-03,
       -2.83470321e-02, -1.67272799e-02, -7.46390037e-03,
       -3.16158421e-02, -4.75366451e-02, 1.26997624e-02, 4.05524904e-03,
       2.83400435e-03, 3.22112106e-02, -2.13933717e-02, -8.79789982e-03,
       5.28765749e-03, -2.99526956e-02, -3.95708159e-02, 9.11100209e-03,
       8.30793381e-03, -4.58875857e-03, -1.01150535e-02, -1.68745518e-02,
       -1.12364758e-02, -2.46215127e-02, -3.43532674e-02,
       -4.47844248e-03, 2.49043461e-02, -3.81103763e-03, -1.03443547e-03,
       -1.50217619e-02, -6.39473498e-02, -2.39215512e-02, 9.04899184e-03,
       -2.25379430e-02, -3.57221216e-02, 2.67347060e-02, 5.40618878e-03,
       2.58728173e-02, 4.60848585e-03, -1.22458860e-02, -2.19749808e-02,
       1.62497237e-02, -1.80099159e-02, -1.70280989e-02, 5.42210676e-02,
       3.58842360e-03, -2.00862512e-02, 3.94708524e-03, 8.63637868e-03,
       2.30440535e-02, -1.38875586e-03, 1.16775222e-02, 1.59910612e-03,
       -8.18306673e-03, 1.82167615e-03, 8.54200404e-03, 8.16580467e-03,
       1.20857283e-02, 8.86417832e-03, 3.85915046e-03, -6.74979808e-03,
       -5.19818114e-03, 1.41533613e-02, 1.95608251e-02, 1.69634707e-02,
       1.77457556e-02, -6.50144508e-03, 1.43414605e-02, 1.00069745e-02,
       2.08860412e-02, 5.11949323e-03, 1.40268616e-02, -1.03168571e-02,
       1.32007422e-02, 1.61070679e-03, -3.11775133e-03, -1.15414651e-03,
       8.90205335e-03, -2.07633525e-03, -8.45338125e-03, -2.86023109e-03,
       -5.67566231e-03, 3.04927323e-02, 4.26556133e-02, 1.80485155e-02,
       6.19043224e-02, 6.39619380e-02, 7.93011338e-02, 1.84414501e-03,
       3.55999842e-02, 6.33016154e-02, -1.84655990e-02, -3.80444266e-02,
       -3.06171868e-02, -2.13837754e-02, 1.60044990e-02, 3.09673138e-03,
       -1.71843041e-02, -3.78430448e-02, -2.26654541e-02, 4.74831611e-02,
       3.59314121e-02, 1.85892377e-02, 8.42812434e-02, 5.00894971e-02,
       4.12667096e-02, -1.83672737e-02, 1.78389866e-02, 3.64295989e-02,
       -8.61677062e-03, -2.78893653e-02, -1.70662738e-02,
       -1.93673745e-02, 2.43034936e-03, -2.98675615e-02, -5.50457798e-02,
       -5.24282344e-02, -2.29386017e-02, 2.18870454e-02, -8.04112479e-03,
       1.58159509e-02, 4.76940610e-02, -3.07349190e-02, 6.96165860e-03,
       2.71270815e-02, -1.81980953e-02, 1.28998561e-02, 4.28315215e-02,
       -2.09959019e-02, -1.38050122e-02, -6.82324450e-03,
       -3.33689079e-02, 1.96455270e-02, 4.59491881e-03, -1.25426054e-02,
       2.58646887e-02, 1.79228652e-02, -1.04845213e-02, 1.77474823e-02,
       3.94253880e-02, -3.80067062e-03, 3.56961787e-02, -2.87340977e-03,
       -2.87713725e-02, 2.65149190e-03, 1.97767857e-02, -2.11456008e-02,
       -2.73102224e-02, 1.51124224e-02, -2.43111067e-02, 2.32162755e-02,
       1.95298996e-03, -3.28440480e-02, 7.67135201e-03, 1.10102911e-02,
       -2.17643641e-02, -2.36805528e-02, -7.88269192e-03, 3.63193117e-02,
       -3.36562493e-03, 3.43993586e-03, -4.89259651e-03, -1.11909332e-02,
       3.38122547e-02, 1.54914651e-02, 5.37518738e-03, 7.47596845e-03,
       -2.50641778e-02, 6.70492183e-04, -1.22514777e-02, -3.77568975e-02,
       -1.23443129e-02, 4.70892759e-03, -2.35373750e-02, -1.70457531e-02,
       7.69184344e-03, 2.84276456e-02, 3.63339558e-02, -5.23851486e-03,
       -2.36491393e-03, -1.16520841e-02, 2.41582803e-02, 3.67055386e-02,
       -1.16802482e-02, 5.46012959e-03, -7.69819226e-03, 1.53794764e-02,
       1.19248386e-02, 2.77358387e-03, 3.31987105e-02, -7.42350612e-03,
       -2.88522542e-02, -1.42373820e-03, -2.42204196e-03, 2.37929188e-02,
       5.44590838e-02, 7.19512329e-02, -1.31276099e-03, -3.24310875e-03,
       -6.79642102e-03, -1.78513750e-02, -4.30571334e-03, 8.43164790e-03,
       2.47069099e-03, 5.20055294e-02, 6.96026608e-02, 7.15664551e-02,
       4.50891666e-02, -1.44090913e-02, -2.03342438e-02, -2.45575793e-02,
       -3.38426344e-02, -4.17960109e-03, -2.09113248e-02, 1.17419418e-02,
       -2.76181996e-02, -2.34967917e-02, -1.05172964e-02,
       -4.55134828e-03, -1.47882095e-02, -2.08835062e-02,
       -8.76081176e-03, 4.68001515e-03, 3.87376510e-02, 6.84213173e-03,
       1.65816694e-02, 6.44249767e-02, 4.63681109e-02, -1.94334630e-02,
       -2.64286213e-02, 1.49534913e-02, 4.47413331e-04, -1.14059085e-02,
       2.42606960e-02, 4.44184355e-02, 7.08682090e-02, 8.00230801e-02,
       2.34671868e-02, -2.48114904e-03, 4.32791421e-03, 4.86629866e-02,
       3.79249416e-02, -6.95728138e-03, -5.87569317e-03, 3.12907360e-02,
       1.06214415e-02, -2.46844776e-02, -2.67339293e-02, 1.26357339e-02,
       -3.02584171e-02, -2.43342090e-02, -1.54212024e-02, 3.46591249e-02,
       2.04223804e-02, 2.19464079e-02, -7.85967708e-03, -5.34784608e-03,
       1.56785082e-02, 7.29111396e-03, -2.37495601e-02, -6.42104149e-02,
       -1.89433875e-03, -6.10662019e-03, 2.61522867e-02, -1.51301278e-02,
       -1.06949350e-02, -1.38870059e-02, 7.31674731e-02, 9.79784876e-02,
       3.76837887e-02, -5.67012802e-02, -2.35549510e-02, -2.34495569e-02,
       -3.30781639e-02, -4.82491329e-02, -8.42270162e-03,
       -6.28309557e-03, 9.74274520e-03, 5.26004378e-03, -2.51466576e-02,
       -3.39654740e-03, 1.23132905e-02, -1.52918026e-02, -3.52651440e-02,
       -8.24738294e-04, 9.65701565e-02, 1.10495329e-01, 6.56472072e-02,
       1.28959538e-02, -3.98798883e-02, -2.93925703e-02, -4.36581671e-02,
       -4.89493385e-02, 2.84479302e-03, 2.88262106e-02, 4.19394746e-02,
       6.23628423e-02, -6.86076994e-04, -1.19521674e-02, 2.86457781e-02,
       1.53158167e-02, -1.55868623e-02, -1.44439032e-02, -1.94584113e-02,
       -2.87094694e-02, 3.94677594e-02, -1.66429691e-02, 1.19397575e-02,
       3.01600322e-02, 1.81682948e-02, -3.45135629e-02, -1.65419113e-02,
       -1.60458833e-02, -1.49674993e-02, 4.02095402e-03, -1.77034549e-02,
       -4.73662019e-02, 1.89054757e-03, 8.04666057e-03, 2.64556869e-03,
       -9.83338803e-03, 2.19351575e-02, 4.40764725e-02, 8.02581534e-02,
       2.01910734e-02, -2.31704973e-02, 1.15140332e-02, 5.11804186e-02,
       -1.70140006e-02, 4.30198014e-03, -2.17279475e-02, -1.55792991e-02,
       1.56721566e-02, 1.49230137e-02, 6.67238515e-03, 2.40395255e-02,
       -1.62285531e-03, -2.32750475e-02, -9.18676611e-03, 9.45776002e-04,
       -1.99630652e-02, 2.13147234e-02, 2.83392072e-02, -1.46779967e-02,
       1.91026330e-02, -1.37201720e-03, -2.11672448e-02, -1.07672662e-02,
       -1.78028420e-02, -2.35724170e-02, -2.11155717e-03, 2.37970669e-02,
       1.96031705e-02, 1.91432629e-02, 4.20095958e-03, -2.15130653e-02,
       -1.62668880e-02, -6.13981346e-03, -1.79013889e-02, 3.13487239e-02,
       3.82785201e-02, -1.28350006e-02, 2.01013889e-02, 1.12229176e-02,
       5.49955948e-05, -6.56758947e-03, 2.63185776e-03, -1.15944231e-02,
       4.01372649e-02, 1.91534329e-02, -2.47945786e-02, 1.28342761e-02,
       9.91171459e-04, 3.58153018e-03, -2.16752142e-02, 7.17499934e-04,
       -1.87232122e-02, 2.44976096e-02, 4.02727118e-03, -1.34031177e-02,
       -1.56609584e-02, -3.65697853e-02, -2.88351811e-03,
       -2.04422534e-03, -1.43401884e-02, -1.50225237e-02, 2.52587087e-02,
       -3.19340937e-02, 1.57672409e-02, 1.43493302e-02, 1.43838925e-02,
       -2.37170910e-03, -5.66962874e-03, 8.32305662e-03, 1.38933240e-02,
       9.16517228e-02, 8.89383443e-03, -1.17446603e-02, 7.66563404e-04,
       2.55689621e-02, -1.63266584e-02, 2.02374496e-02, -1.85513534e-02,
       -1.19546158e-02, 5.59863076e-02, 1.94763411e-02, -6.01413734e-02,
       -8.77189916e-03, -2.67548375e-02, 1.03484644e-02, -3.60218845e-02,
       -1.00268098e-02, -6.01069909e-03, 2.28345022e-02, -1.04522659e-02,
       -3.29461507e-02, -5.72517887e-03, -3.21873538e-02, 1.26607968e-02,
       8.43422080e-04, -3.98612693e-02, 5.94847152e-05, 1.36947529e-02,
       -2.34084204e-02, 1.61217768e-02, 1.30077936e-02, -4.95763088e-04,
       9.12439171e-03, -1.29523873e-02, -7.94775132e-03, -6.48524656e-06,
       3.96740623e-02, 4.39684428e-02, 3.91187370e-02, 3.84797305e-02,
       -9.61363222e-03, 1.96409225e-02, -1.97532121e-03, -1.86368786e-02,
       -5.28891711e-03, 4.34260517e-02, 4.79550026e-02, 2.62249652e-02,
       3.60550210e-02, -1.23493858e-02, 1.78640168e-02, -1.11762108e-02,
       -3.50485742e-02, -1.11176688e-02, 1.67986620e-02, -2.49751993e-02,
       1.13420002e-02, -1.10868993e-03, -6.22753613e-02, -1.76231693e-02,
       -4.11896296e-02, -3.72570679e-02, -8.92319903e-03, 1.69972256e-02,
       -9.92558710e-03, 6.16007596e-02, 5.99184595e-02, -9.58792400e-03,
       3.80478539e-02, -2.79087597e-03, -1.85689349e-02, -2.87984293e-02,
       1.11805433e-02, 1.81458779e-02, 2.08864678e-02, 2.79794708e-02,
       -2.63610203e-02, -1.33772530e-02, -3.74886394e-03,
       -4.26755510e-02, -2.07199436e-02, 2.65719718e-03, 2.14347318e-02,
       2.36863643e-02, 1.89885851e-02, -3.97376828e-02, -1.98230054e-02,
       -1.64992213e-02, -2.55636927e-02, -1.43315801e-02, 1.52285267e-02,
       -2.66505731e-03, 1.89657288e-03, 4.72962437e-03, -3.32878232e-02,
       -2.97539346e-02, -2.10376121e-02, -3.96442898e-02,
       -7.26144761e-03, 3.16115804e-02, -2.98580490e-02, 3.19750905e-02,
       -2.27462806e-04, -2.41035149e-02, -2.16662847e-02, 6.88912347e-03,
       -3.11929397e-02, -1.96021656e-03, 2.30947454e-02, 3.00583690e-02,
       1.87627897e-02, -1.85838491e-02, -3.06284074e-02, -4.39598709e-02,
       -1.38210645e-02, -5.06738350e-02, -3.88711654e-02, 7.23824184e-03,
       2.54147570e-03, -4.30253567e-03, 1.81892607e-02, -1.07612349e-02,
       -2.19841767e-02, 3.71736172e-03, -9.67428554e-03, -2.46974011e-03,
       6.96134940e-02, -1.77604891e-02, 2.75695529e-02, 7.82835577e-03,
       -1.44097311e-02, -4.29527741e-03, -5.90605289e-03,
       -1.56974979e-02, -1.43231992e-02, 3.85363586e-02, 2.07328647e-02,
       -2.36246251e-02, -1.32552413e-02, -1.78110190e-02,
       -1.54188811e-03, 1.49000483e-02, -1.21634053e-02, -2.57119797e-02,
       2.83447304e-03, -3.15350778e-02, 1.14933560e-02, -1.96241941e-02,
       -4.03135307e-02, 1.36666829e-02, -8.04243423e-03, 9.20137216e-04,
       -1.02218296e-02, 2.67931148e-02, 6.79670926e-03, 3.84961031e-02,
       2.70404965e-02, -3.28695513e-02, -1.50078963e-02, -1.87339671e-02,
       -2.03898977e-02, -2.54188217e-02, 1.58442147e-02, 2.65593827e-02,
       5.00339605e-02, 3.09993103e-02, -1.71973240e-02, -1.65257324e-02,
       -2.08474789e-03, -2.87901697e-04, -1.53783308e-02, 4.90767732e-02,
       1.31080914e-02, 9.67296679e-03, -2.90585812e-02, -6.42473325e-02,
       -1.81128383e-02, -3.96710075e-02, -3.22113000e-02,
       -1.34416604e-02, 4.91908239e-03, -2.33636368e-02, -6.36090292e-04,
       -1.84147321e-02, -3.66303660e-02, -3.07184439e-02,
       -2.76990328e-02, -5.44776544e-02, -3.84054519e-02,
       -2.22941134e-02, -2.71509737e-02, 2.28106566e-02, 5.26408441e-02,
       1.80664137e-02, 7.54964026e-03, 6.39094971e-03, 5.59085757e-02,
       4.63212095e-02, 5.84688522e-02, 4.46422622e-02, 7.39168515e-03,
       -9.03310347e-03, -9.99162626e-03, -8.97616905e-04, 2.59527541e-03,
       7.36629032e-03, 3.77742276e-02, 3.70258987e-02, 4.56010625e-02,
       6.91421190e-03, 9.69216228e-03, 4.36578598e-03, 4.24534874e-03,
       -8.85414239e-03, -1.85177419e-02, 8.26238841e-03, 1.01617968e-03,
       -7.86431134e-03, -5.55230901e-02, -4.06809412e-02,
       -2.80295014e-02, -3.08273919e-02, 4.88948252e-04, -4.98540588e-02,
       -5.77872666e-03, -8.53621028e-03, -2.76931543e-02, 4.79904637e-02,
       2.21359711e-02, 4.07304876e-02, 1.06132425e-01, 6.55153021e-02,
       4.79007438e-02, 3.45496312e-02, 4.93429191e-02, 6.75559267e-02,
       9.95203014e-03, -2.86039952e-02, -1.85196549e-02, 2.02725064e-02,
       2.39755083e-02, -2.82075629e-02, -4.49705832e-02, -2.25727148e-02,
       -1.63065176e-02, -3.09580378e-03, 1.85439899e-03, 3.98576856e-02,
       7.59838596e-02, 3.55012417e-02, 2.09237598e-02, 2.33884566e-02,
       7.54465815e-04, 1.41271632e-02, -2.76209489e-02, -3.84103768e-02,
       -2.37630010e-02, 2.21251994e-02, -6.91899005e-03, -2.43330542e-02,
       -3.58817130e-02, -5.37556894e-02, -8.33808072e-03, 3.52227874e-02,
       -5.63517399e-03, 7.72978505e-03, 1.54419811e-02, -3.11563928e-02,
       7.57095637e-04, -1.33793883e-03, -3.65855522e-03, 1.52372606e-02,
       -8.80458509e-04, -3.29246037e-02, 7.61241280e-03, 3.22503150e-02,
       -2.87281591e-02, 2.54353676e-02, -1.24815721e-02, -4.72775549e-02,
       6.49383292e-03, 3.03262100e-02, 5.02819149e-03, -3.35648796e-03,
       2.83557940e-02, -1.78805068e-02, 3.73626836e-02, 9.93102510e-03,
       -1.13176862e-02, 4.31651585e-02, -1.11401342e-02, -3.51802930e-02,
       4.37673042e-03, 6.05839565e-02, -5.25709288e-03, 2.89222579e-02,
       -2.17049625e-02, -2.14453321e-02, 1.97507720e-02, 2.40340140e-02,
       -5.32767689e-03, -1.62728485e-02, -6.16512308e-03, 4.29307017e-03,
       1.53003810e-02, -1.18474690e-02, 2.35218392e-03, 1.77118275e-02,
       2.94440743e-02, 3.55141684e-02, 7.66231306e-03, 9.49939340e-03,
       1.92581222e-03, -3.77724413e-03, 1.05771134e-02, -1.46910746e-03,
       1.86050609e-02, 1.09296804e-03, -1.56806242e-02, -1.60452500e-02,
       2.67033037e-02, 2.15484016e-02, 2.57613510e-02, 6.44100923e-03,
       1.22556239e-02, 3.60554792e-02, 1.27865514e-02, -2.34487490e-03,
       3.20106442e-03, 2.37827841e-02, 6.08382141e-03, 1.44370859e-02,
       7.04055838e-03, 4.54951264e-03, 3.64913568e-02, 1.96952391e-02,
       -2.71050190e-03, -1.12966793e-02, 1.44828921e-02, 5.22007374e-03,
       -1.62608959e-02, 1.42973755e-02, 1.10848565e-02, 1.48458481e-02,
       5.07398695e-03, -4.34499979e-03, -3.74003756e-03, 2.44255420e-02,
       -2.69459207e-02, 5.24307194e-04, 1.89425852e-02, 2.42998591e-03,
       2.37875059e-02, 1.34246480e-02, -1.57127604e-02, -2.19039377e-02,
       4.16756375e-03, -1.48747902e-04, -1.06886560e-02, -2.06777211e-02,
       -1.36445509e-02, 6.67956145e-03, -7.72891333e-04, -2.20578425e-02,
       -2.14666333e-02, 1.14475153e-02, 7.67874718e-03, -5.99089731e-03,
       -2.98763923e-02, 1.31716020e-03, 2.60035452e-02, 6.79000840e-03,
       -1.03265559e-02, -3.15862186e-02, 8.12662952e-03, 1.58211123e-02,
       -4.45666444e-03, -1.38081852e-02, -4.73125139e-04, 1.73520986e-02,
       -1.11600338e-02, 3.42410393e-02, -2.81922403e-03, -7.01064197e-03,
       -2.35331785e-02, -1.84399858e-02, -3.16382721e-02,
       -3.34004052e-02, -2.82733943e-02, -1.77523512e-02,
       -2.34716684e-02, -1.67458244e-02, 1.52581045e-02, 4.04343680e-02,
       1.40049709e-02, -1.56394672e-02, -1.33325800e-03, 6.40753703e-03,
       1.37911597e-02, 2.11450625e-02, 1.71429850e-02, -4.45098104e-03,
       -1.19531322e-02, 1.90465432e-03, -1.01288212e-02, -1.27453823e-02,
       1.82137359e-02, -3.84666491e-04, 3.90192159e-02, 1.65902860e-02,
       -1.57943796e-02, -6.49506785e-03, 9.88313556e-03, 2.08802372e-02,
       2.63338536e-02, -4.33108117e-03, -2.77705565e-02, -9.86816548e-03,
       2.14315555e-03, -3.12337046e-03, -5.95007930e-03, 1.72478724e-02,
       -8.26593302e-03, 1.67627502e-02, -8.60236585e-03, -5.92167117e-03,
       9.61119402e-03, -1.60190836e-03, 9.39108338e-03, 5.20502171e-03,
       -2.83891391e-02, -1.17317755e-02, -1.99880693e-02,
       -3.50844255e-03, -5.87444939e-03, 6.49663480e-03, -9.81105771e-03,
       -7.86161516e-03, 2.41058879e-02, 2.41872366e-03, -6.99327420e-03,
       2.11687312e-02, 2.15364322e-02, -1.83301512e-02, -6.56181131e-04,
       2.62052808e-02, 2.96610538e-02, 7.21544120e-03, -9.51385312e-03,
       -3.69809084e-02, 6.81624189e-02, 4.94237207e-02, -3.44557874e-02,
       -1.64671317e-02, 1.35175558e-02, -1.13490596e-02, 1.46159548e-02,
       -2.53860839e-02, -4.19780947e-02, 2.55139675e-02, 2.93400586e-02,
       -2.95793579e-04, -5.66901360e-03, 1.73230655e-02, 1.23259134e-03,
       1.82707198e-02, 1.94855290e-03, -1.23677664e-02, 3.49376798e-02,
       4.64959778e-02, -1.17923962e-02, 9.13866446e-04, 9.93139693e-04,
       -3.38276452e-03, -1.16135171e-02, -3.71244885e-02,
       -4.88887131e-02, 1.08112954e-02, 1.01759154e-02, -3.30370739e-02,
       1.58941448e-02, 2.70733028e-03, 3.68370069e-03, 1.79523993e-02,
       -5.04917512e-03, -7.49168918e-03, 3.62319127e-02, 6.30972628e-03,
       -5.25628328e-02, 5.79480687e-03, 3.47823231e-03, -1.46465804e-02,
       1.04666082e-03, 1.46521172e-02, -2.13338211e-02, -4.45710961e-03,
       -1.88757647e-02, 1.76968277e-02, 3.32738124e-02, -2.66636419e-03,
       -6.28554123e-03, 1.41396644e-02, -4.40537091e-03, -1.63375251e-02,
       1.96127556e-02, 2.08667535e-02, 1.62368976e-02, 2.20479537e-02,
       -1.52663849e-02, -1.33721763e-02, 2.19121436e-03, -4.81714681e-03,
       -5.42286830e-03, 2.66227629e-02, -3.79849487e-04, -1.89959854e-02,
       1.39427036e-02, 1.14470413e-02, -1.50334998e-03, -7.39027513e-03,
       1.02752876e-02, -1.34435724e-02, 4.47699465e-02, 2.96458825e-02,
       -5.75063052e-03, 9.10002459e-03, 2.56737717e-03, -2.29765121e-02,
       1.05319284e-02, -1.50182974e-02, -1.09045301e-02, 3.11834607e-02,
       3.96319292e-02, 2.50002816e-02, 1.17360419e-02, -1.83758754e-02,
       7.68594723e-03, 9.08902846e-03, -7.01483339e-03, 1.27717809e-04,
       2.28015725e-02, 2.45323423e-02, 1.89707906e-03, -6.97058684e-04,
       -2.50116196e-02, -1.08068781e-02, 1.09777497e-02, -4.28396538e-02,
       -4.27288236e-03, -1.65519919e-02, -1.47334067e-02, 5.73257683e-04,
       5.31557426e-02, 1.27540510e-02, 5.73675474e-03, -1.17487740e-02,
       5.57472755e-04, 1.01664709e-02, 4.14408706e-02, 3.39651704e-02,
       1.30308978e-02, 1.79253705e-02, -1.73121355e-02, 2.11494360e-02,
       1.17700612e-02, 1.07354252e-02, 3.15857399e-03, 3.95355672e-02,
       2.23639999e-02, 3.68985534e-02, 5.20274742e-03, -8.43973074e-04,
       1.09043694e-03, 6.53400552e-03, -5.95542323e-03, 4.24118433e-03,
       -1.55533655e-02, -5.27285133e-03, 2.62670591e-02, 1.12472232e-02,
       -3.06484825e-03, -1.86798740e-02, 4.77223250e-04, 8.42586718e-03,
       -7.64806708e-03, -1.00086434e-02, 1.13561191e-02, 7.87459873e-03,
       1.07597401e-02, -4.23320290e-03, 6.52073920e-02, 5.18387333e-02,
       3.71384062e-02, -1.80643704e-02, 3.21136825e-02, -1.36477510e-02,
       -2.88792960e-02, -9.25992522e-03, -1.43072996e-02, 1.63280144e-02,
       3.26665863e-02, 3.12672704e-02, 8.74672364e-03, 2.89443112e-03,
       -1.88900866e-02, 2.63231434e-02, -7.25294277e-03, -2.66485047e-02,
       3.40292114e-03, -3.19794775e-03, 2.32315585e-02, -7.35156052e-03,
       -2.39567162e-05, 4.17547487e-03, -7.90887326e-03, -1.00158565e-02,
       -2.21764687e-02, -1.48080699e-02, 8.61167815e-03, -5.12152538e-03,
       -1.48668177e-02, 1.60058700e-02, 1.19425375e-02, -1.65232942e-02,
       -5.52602392e-03, -1.48965195e-02, 2.73802336e-02, 1.82319395e-02,
       2.57177670e-02, 4.76561347e-03, 2.07783356e-02, 6.88911555e-03,
       -2.47691553e-02, -1.17219519e-02, -1.96579527e-02, 2.10326631e-02,
       -6.29209960e-03, 8.22664984e-03, -1.64398663e-02, 2.01865323e-02,
       -7.05159875e-03, 1.56527967e-03, 5.44188730e-03, -2.57802717e-02,
       2.68366700e-03, -1.43438037e-02, 7.31275300e-04, -4.18613441e-02,
       -1.80197377e-02, 2.04124022e-03, -1.26309674e-02, -8.45470186e-03,
       -3.16098370e-02, 1.90115105e-02, -2.32205726e-02, 3.64705571e-04,
       -3.86398844e-02, -3.53679880e-02, -3.65327671e-02,
       -8.85667559e-03, 1.43696954e-02, 6.34454470e-03, 4.10647318e-02,
       3.01842224e-02, 2.41815299e-02, 8.89445248e-04, 2.75568105e-02,
       -2.63985712e-04, 4.84375563e-03, 1.37952166e-02, -1.10608423e-02,
       5.20007722e-02, 2.23528612e-02, 2.34732926e-02, 8.38653091e-03,
       1.99369658e-02, -6.90436643e-03, -9.59353289e-04, 1.41322594e-02,
       -2.54679900e-02, -1.26558850e-02, -8.94702971e-03,
       -1.28162652e-02, -8.78312346e-03, 3.25713232e-02, -7.83337280e-03,
       -1.45004895e-02, -5.68206795e-03, -2.31905617e-02,
       -2.36441027e-02, -1.20237153e-02, 1.37820309e-02, -2.24437788e-02,
       1.18386261e-02, -2.77663190e-02, 1.91144478e-02, 8.17414094e-03,
       -3.35710160e-02, 2.49599270e-03, 9.80141107e-03, 6.25707733e-04,
       8.62921774e-03, 2.25291811e-02, 3.00719813e-02, -7.43355486e-05,
       -1.89304841e-03, 5.08861663e-03, 1.46559346e-02, 1.75949838e-02,
       -4.82586765e-04, 1.19190421e-02, 2.02998836e-02, 1.63069647e-02,
       1.73833836e-02, -1.03903562e-02, -2.39971522e-02, -9.30604339e-03,
       -5.89246920e-04, 9.17236041e-03, -5.28880721e-03, 1.55894812e-02,
       4.12967708e-03, -3.37132178e-02, -1.80043746e-02, -3.33583206e-02,
       -3.23758870e-02, -1.61646008e-02, -2.51790639e-02, 2.19156616e-03,
       -5.51300909e-05, -1.00236908e-02, 3.69695225e-03, 2.91725602e-02,
       2.51248125e-02, 5.77730313e-02, 5.01255244e-02, 2.50867922e-02,
       2.74320785e-02, 1.95987131e-02, 8.72387644e-03, -1.82793289e-02,
       2.13413406e-02, 1.15687940e-02, 1.92757547e-02, -3.80276283e-03,
       1.72793716e-02, 1.63272228e-02, 4.66181012e-03, -1.10353613e-02,
       -2.35154815e-02, 1.79991629e-02, -1.11802612e-02, -1.62300479e-03,
       -1.93611439e-02, 1.83936930e-03, -3.00034345e-03, -1.72688086e-02,
       -1.94481183e-02, -3.17725427e-02, -1.30728483e-02,
       -2.01933719e-02, -1.86495073e-02, -1.82258878e-02,
       -4.28959429e-02, -2.41939481e-02, -4.35851365e-02,
       -1.14259897e-02, -5.53850783e-03, 1.76026635e-02, 3.10502108e-02,
       6.53787628e-02, 1.22114588e-02, 4.25034650e-02, 2.10998878e-02,
       -4.55487752e-03, 1.43825440e-02, -1.20400405e-02, 3.90436291e-03,
       -4.22396173e-04, 1.69571862e-02, -9.34400223e-03, -1.11667847e-03,
       5.10223955e-03, -4.09952998e-02, -1.77456327e-02, -2.46721873e-04,
       8.04134412e-04, 2.14019306e-02, -8.31859466e-03, 2.75217346e-03,
       -1.91112924e-02, 3.31605109e-03, -2.92363055e-02, 1.38613805e-02,
       2.87327953e-02, -8.44212621e-03, -2.39382852e-02, -2.16246936e-02,
       -2.47965269e-02, -1.88166834e-02, -2.50182534e-03, 3.65974917e-03,
       -8.60085897e-03, 2.67176684e-02, 1.08854715e-02, -2.06620898e-03,
       6.36699703e-03, -2.66169421e-02, 2.01785378e-02, 1.54812681e-02,
       -3.28482338e-03, 4.33763638e-02, -7.90587626e-04, -2.20328774e-02,
       -1.53843369e-02, 9.57921520e-03, -2.02045571e-02, 3.43892612e-02,
       -1.85456071e-02, -9.54392180e-03, 2.72431262e-02, 3.04287542e-02,
       5.51875681e-03, -2.19019968e-03, 2.73349248e-02, 1.22549897e-02,
       2.35784631e-02, 1.62724163e-02, -1.17030423e-02, -1.18078766e-02,
       1.53248738e-02, -2.42087431e-02, -1.88258402e-02, 1.62518658e-02,
       5.40636154e-03, 2.83138957e-02, -9.14954487e-03, -2.71044541e-02,
       3.56883998e-03, -4.85918578e-03, -1.97014734e-02, -3.13002579e-02,
       -5.70117123e-03, 2.84937248e-02, 6.29776390e-03, 1.12318490e-02,
       8.87778774e-03, 1.89707838e-02, -8.34896974e-03, -1.27295367e-02,
       1.91915501e-02, 1.50539763e-02, 2.55406611e-02, 1.12996204e-02,
       1.41620748e-02, -4.11589025e-03, 5.14892116e-03, 3.06162257e-02,
       -2.05666516e-02, -1.14393914e-02, 2.35268543e-03, 1.32887987e-02,
       4.41788323e-03, -1.07653020e-02, -3.50563861e-02, 7.93072302e-03,
       2.42028795e-02, 5.64533751e-04, -8.43983842e-04, 3.50811258e-02,
       3.23958434e-02, 1.35294534e-02, 2.85053230e-03, -1.09276436e-02,
       1.87298637e-02, -2.48073321e-03, -1.77100394e-03, 9.85541288e-03,
       -7.42594944e-04, 1.91446710e-02, 6.96961442e-03, 1.06975380e-02,
       -1.80619746e-03, -2.69082431e-02, 3.39947990e-03, 3.62629420e-03,
       -7.90158156e-05, 1.62424166e-02, 1.68930572e-02, 3.30875721e-03,
       3.15193390e-03, 3.07780840e-02, 3.37740630e-02, 3.39815207e-02,
       5.38110361e-03, -1.38127962e-02, 2.26119012e-02, 2.44279895e-02,
       1.71116590e-02, 1.24912215e-02, -1.91015191e-02, 2.69611971e-03,
       7.17412168e-03, 3.77844200e-02, -1.96914990e-02, 1.09104859e-02,
       1.20728249e-02, 4.07347195e-02, 2.53237486e-02, -2.56976741e-03,
       4.47712233e-03, -3.34956199e-02, 6.92184828e-03, 5.70175424e-03,
       9.82544105e-03, -1.77566595e-02, -1.29056806e-02, 2.53962819e-03,
       1.85267988e-03, 1.10154934e-02, -2.95115146e-03, 5.77925285e-03,
       6.51860703e-03, -4.36151109e-04, -2.44622547e-02, 1.08212829e-02,
       9.08834487e-03, 5.95532730e-03, 1.70212034e-02, -3.10092941e-02,
       1.63884219e-02, -1.41882887e-02, 1.68774519e-02, 9.65261646e-03,
       8.77539348e-03, 2.38917563e-02, 3.19836624e-02, 1.25507563e-02,
       2.06115115e-02, 8.98423325e-03, -1.64883828e-03, 1.65671613e-02,
       -4.67069400e-03, 2.92009078e-02, 1.60343703e-02, 3.18843015e-02,
       5.25544845e-02, -9.37659852e-03, 1.79007780e-02, -1.73448399e-02,
       4.14090930e-03, -1.23195676e-03, 1.44753316e-02, 9.98222269e-03,
       6.60868175e-03, 1.04617486e-02, -1.34923831e-02, 1.89369954e-02,
       4.54243692e-03, -1.47666400e-02, -2.25079264e-02, -2.07539741e-02,
       1.73491298e-03, -1.10934605e-03, 8.93295743e-03, -2.40656617e-03,
       2.19995482e-03, -1.07708657e-02, 1.06897578e-02, 6.79543382e-03,
       1.89320743e-02, 7.08995154e-03, 9.05954093e-03, 8.66743736e-03,
       -1.23804074e-03, -4.26604820e-04, 5.40226698e-03, -1.35784680e-02,
       -2.61104782e-03, -2.67329235e-02, -2.92647425e-02,
       -2.55032051e-02, -2.97401603e-02, 3.35472985e-03, 1.78250927e-03,
       1.88307110e-02, 6.55291718e-04, 2.43385825e-02, 1.79166682e-02,
       3.47330584e-03, 2.36158576e-02, 2.05507018e-02, 5.61517244e-03,
       1.79378055e-02, -3.20506725e-03, -9.27686784e-03, -1.20838545e-02,
       -8.92827939e-03, -3.31171229e-02, -4.40463005e-03,
       -2.73141488e-02, -6.07152097e-03, 1.40742436e-02, -1.66759100e-02,
       -7.08346907e-03, 5.18530048e-02, 3.57514946e-03, -3.38733047e-02,
       2.14873278e-03, -3.83826494e-02, -3.09376162e-03, 2.26272386e-03,
       -4.29196795e-03, -6.08359789e-03, 2.92088650e-02, -2.79051829e-02,
       -4.97682802e-02, -8.37884378e-03, -3.83471735e-02,
       -5.52096870e-03, 3.45208496e-02, -1.25873201e-02, 1.71388406e-03,
       9.76215769e-03, 2.75965761e-02, -9.07247048e-03, 4.58842143e-03,
       2.31296364e-02, -9.25065298e-03, 1.64000802e-02, -6.25838293e-03,
       -2.51519177e-02, -4.30128910e-03, 1.42792035e-02, -1.15614049e-02,
       3.78151834e-02, -8.24485999e-03, 9.62121761e-04, 2.93038748e-02,
       -1.30591029e-02, 3.68680526e-03, 2.18782146e-02, -4.45189793e-03,
       -3.10885329e-02, -2.01299191e-02, -1.68424044e-02,
       -2.24357992e-02, 1.64857171e-02, -6.15007430e-03, -5.01115620e-02,
       1.64562650e-02, 1.01359724e-03, -8.83693714e-03, -1.44103961e-02,
       -2.22567637e-02, 7.64388777e-03, 2.74654441e-02, 8.86679906e-03,
       2.22922601e-02, 2.13163048e-02, 3.65807377e-02, 4.19079512e-03,
       4.63708676e-02, 2.31203660e-02, -4.59437817e-03, 7.57968705e-03,
       -3.15610133e-02, -4.14082035e-03, 7.58662028e-03, -1.64670795e-02,
       -2.24098694e-02, 2.43281270e-03, -1.04236575e-02, -3.07779107e-03,
       2.21659690e-02, 5.26270643e-03, -1.70989130e-02, 2.74902303e-03,
       4.22948413e-02, -2.03083269e-02, 9.50483792e-03, -2.07199040e-03,
       1.28101825e-03, 3.16944607e-02, -3.23707089e-02, -1.78159289e-02,
       -7.65649020e-04, 2.56459974e-02, -5.75385131e-02, -2.13265680e-02,
       1.02297151e-02, 3.44837196e-02, 1.17175058e-02, -6.19332911e-03,
       1.53020024e-02, 2.20921673e-02, 3.39401551e-02, 1.52258929e-02,
       2.48677190e-02, 3.53270732e-02, 2.44346801e-02, 3.64317447e-02,
       1.08693937e-04, -2.97136419e-02, -3.22432145e-02, 6.54695369e-03,
       8.65963381e-03, 1.99817005e-03, 1.25892255e-02, -4.60743066e-03,
       1.70970075e-02, -2.19009183e-02, 4.17767651e-03, -1.57004979e-03,
       4.58505154e-02, -1.75881460e-02, 1.77214425e-02, 1.11065898e-02,
       -9.30799916e-03, 3.96038517e-02, -1.41080115e-02, -1.35832308e-02,
       -7.64943380e-03, -1.49744218e-02, -5.54851536e-03, 1.03752781e-02,
       -1.86114926e-02, 9.55742877e-03, 2.56921854e-02, -2.01900452e-02,
       -1.15172211e-02, -2.18469985e-02, 1.18138203e-02, 2.24393364e-02,
       -9.16134939e-03, -9.25639831e-03, 8.17166700e-04, 1.79370120e-02,
       -1.56963319e-02, -1.76631007e-02, 1.76120326e-02, -6.71730377e-03,
       7.29734218e-03, 1.90216973e-02, -3.03281453e-02, 2.19112099e-03,
       4.19649445e-02, -5.84540656e-03, 1.08480416e-02, 2.24628057e-02,
       2.42235418e-02, 1.79161020e-02, -3.84571683e-03, -5.70208430e-02,
       -1.84215978e-02, 2.59393342e-02, 1.56080036e-03, -6.59961766e-03,
       2.64300145e-02, 3.55769247e-02, -7.70682120e-04, -2.35802191e-03,
       -1.83361061e-02, 4.34631761e-03, 2.34837942e-02, -1.23301093e-02,
       1.26117421e-02, -1.62218492e-02, -1.56260736e-03, -2.12154593e-02,
       -5.47462283e-03, 5.13402699e-03, 5.81374299e-03, 2.52575730e-03,
       -1.14055965e-02, 1.09749269e-02, -2.18613166e-03, 1.12948874e-02,
       -2.61877254e-02, -5.94226643e-03, -1.72187686e-02, 1.41374664e-02,
       -5.19410847e-03, 4.96679358e-03, -4.55213943e-03, -1.78439971e-02,
       1.27867153e-02, -4.08892520e-02, -1.69901550e-02, -2.82202195e-02,
       8.41789320e-03, -2.40529515e-02, -1.60594266e-02, 6.83772145e-03,
       1.03396168e-02, -2.36372706e-02, -4.31771167e-02, -8.40022974e-03,
       -2.30571497e-02, 2.46462878e-02, 3.32393385e-02, 6.49391394e-03,
       -4.23541106e-03, -1.26380129e-02, 8.78738984e-03, -2.37405160e-03,
       1.94395203e-02, 1.46039631e-02, -2.68355738e-02, 2.10305005e-02,
       6.89268438e-03, -5.44768758e-03, -1.86386164e-02, 4.43256348e-02,
       8.85083620e-03, 1.32829333e-02, -2.38675941e-02, 5.37821651e-03,
       6.26467215e-03, -8.52858648e-03, 1.69197412e-03, -1.40466969e-02,
       -1.73021472e-04, -2.78577022e-02, 1.01052935e-03, -1.11848339e-02,
       -1.81883462e-02, 1.32156760e-02, 7.80548714e-03, -1.24699781e-02,
       -2.39615999e-02, 3.95152578e-03, -2.81589422e-02, -1.15062902e-02,
       -1.09198038e-02, 2.13641999e-03, 1.50349885e-02, 2.64236634e-03,
       2.68831030e-02, 6.44256547e-03, 3.55262347e-02, 1.26854200e-02,
       1.46429325e-02, -1.20081753e-03, -1.06687834e-02, -8.83692876e-03,
       -3.27127427e-02, 9.98706557e-03, -3.34833260e-03, -1.68028697e-02,
       -1.49923228e-02, -1.88874118e-02, -3.48638594e-02, 1.29255271e-02,
       1.08343586e-02, -8.82414635e-03, -3.35966400e-03, 8.20512697e-03,
       1.59911681e-02, 2.58951099e-03, -9.46919620e-03, -1.49739543e-02,
       -5.08700497e-03, -1.82199609e-02, -4.43515331e-02,
       -2.46072281e-02, -1.46724805e-02, -2.54864860e-02,
       -3.84713747e-02, 8.86673667e-03, -2.50064116e-02, -1.56845171e-02,
       1.91410761e-02, 1.40774874e-02, 2.71782055e-02, 2.29363814e-02,
       3.18290405e-02, 3.36762751e-03, 2.59813783e-03, -2.03699246e-02,
       -1.56587828e-02, 4.26698197e-03, 1.58214699e-02, 1.33966003e-02,
       -2.16315174e-03, -9.43932403e-03, 2.29677875e-02, 1.33935539e-02,
       8.05430673e-03, -7.13018887e-03, -1.04869446e-02, -1.82752740e-02,
       4.63446463e-03, -1.96213392e-03, 4.34184596e-02, 1.74274966e-02,
       1.39590800e-02, -3.18351947e-02, -1.51358126e-02, 2.17837114e-02,
       -1.08411384e-03, -2.99420743e-03, -5.14524931e-04,
       -2.78467182e-02, 6.59079407e-04, -2.05792598e-02, -2.11621132e-02,
       8.75822734e-03, 1.20257540e-02, 2.89264955e-02, 4.37426334e-03,
       2.69579906e-02, -8.05617124e-03, 2.56655607e-02, 1.89968236e-02,
       2.28955992e-03, 8.64206534e-03, -1.44412846e-03, -1.20962141e-02,
       1.70267597e-02, 3.50501426e-02, -9.02523752e-03, 2.25455016e-02,
       -5.00939507e-03, -2.53738817e-02, 1.49832712e-02, 3.65650468e-02,
       1.80866115e-03, -4.89353761e-03, 1.04628052e-04, 1.37521150e-02,
       4.95738350e-02, 8.46327376e-03, -1.04434239e-02, -1.10170143e-02,
       -1.73212327e-02, -5.48512023e-03, 2.74926387e-02, 1.63381584e-02,
       1.88906938e-02, 2.85877418e-02, -2.54050530e-02, -5.50847035e-03,
       2.29386780e-02, -8.37356597e-03, -1.89548563e-02, 3.04587651e-02,
       -2.21556518e-03, -1.21324603e-02, 1.75315831e-02, -2.72185039e-02,
       -8.19909107e-03, 2.95296572e-02, -1.32985385e-02, -3.78015311e-03,
       2.10797656e-02, 6.07966166e-03, 2.91725551e-03, -5.34722488e-03,
       -2.93632168e-02, 2.33576074e-02, 1.29099274e-02, -6.22689724e-03,
       -6.48290245e-03, -8.93676130e-04, -4.12550475e-03, 5.69107709e-03,
       -1.35276020e-02, -2.49726530e-02, 1.10683301e-02, 2.61538681e-02,
       -1.20336027e-03, -3.78537923e-03, -2.33685169e-02,
       -1.23299696e-02, 3.19802687e-02, 1.77751307e-03, -4.46339063e-02,
       1.71619505e-02, -1.58058083e+00 ]
